digraph Tree {
node [shape=box, style="filled, rounded", color="black", fontname="helvetica"] ;
edge [fontname="helvetica"] ;
0 [label="Defense <= 56.0\ngini = 0.499\nsamples = 120\nvalue = [62.0, 58.0]\nclass = Lost", fillcolor="#fdf7f2"] ;
1 [label="HP <= 57.5\ngini = 0.172\nsamples = 42\nvalue = [38, 4]\nclass = Lost", fillcolor="#e88e4e"] ;
0 -> 1 [labeldistance=2.5, labelangle=45, headlabel="True"] ;
2 [label="gini = 0.0\nsamples = 28\nvalue = [28, 0]\nclass = Lost", fillcolor="#e58139"] ;
1 -> 2 ;
3 [label="Speed <= 85.0\ngini = 0.408\nsamples = 14\nvalue = [10, 4]\nclass = Lost", fillcolor="#efb388"] ;
1 -> 3 ;
4 [label="HP <= 75.0\ngini = 0.278\nsamples = 12\nvalue = [10, 2]\nclass = Lost", fillcolor="#ea9a61"] ;
3 -> 4 ;
5 [label="gini = 0.0\nsamples = 8\nvalue = [8, 0]\nclass = Lost", fillcolor="#e58139"] ;
4 -> 5 ;
6 [label="Attack <= 57.5\ngini = 0.5\nsamples = 4\nvalue = [2, 2]\nclass = Lost", fillcolor="#ffffff"] ;
4 -> 6 ;
7 [label="gini = 0.0\nsamples = 2\nvalue = [2, 0]\nclass = Lost", fillcolor="#e58139"] ;
6 -> 7 ;
8 [label="gini = 0.0\nsamples = 2\nvalue = [0, 2]\nclass = Win", fillcolor="#399de5"] ;
6 -> 8 ;
9 [label="gini = 0.0\nsamples = 2\nvalue = [0, 2]\nclass = Win", fillcolor="#399de5"] ;
3 -> 9 ;
10 [label="HP <= 60.5\ngini = 0.426\nsamples = 78\nvalue = [24, 54]\nclass = Win", fillcolor="#91c9f1"] ;
0 -> 10 [labeldistance=2.5, labelangle=-45, headlabel="False"] ;
11 [label="Speed <= 66.5\ngini = 0.497\nsamples = 28\nvalue = [15, 13]\nclass = Lost", fillcolor="#fceee5"] ;
10 -> 11 ;
12 [label="HP <= 59.5\ngini = 0.415\nsamples = 17\nvalue = [12, 5]\nclass = Lost", fillcolor="#f0b58b"] ;
11 -> 12 ;
13 [label="HP <= 52.5\ngini = 0.486\nsamples = 12\nvalue = [7, 5]\nclass = Lost", fillcolor="#f8dbc6"] ;
12 -> 13 ;
14 [label="Attack <= 73.5\ngini = 0.42\nsamples = 10\nvalue = [7, 3]\nclass = Lost", fillcolor="#f0b78e"] ;
13 -> 14 ;
15 [label="Attack <= 37.5\ngini = 0.245\nsamples = 7\nvalue = [6, 1]\nclass = Lost", fillcolor="#e9965a"] ;
14 -> 15 ;
16 [label="gini = 0.0\nsamples = 1\nvalue = [0, 1]\nclass = Win", fillcolor="#399de5"] ;
15 -> 16 ;
17 [label="gini = 0.0\nsamples = 6\nvalue = [6, 0]\nclass = Lost", fillcolor="#e58139"] ;
15 -> 17 ;
18 [label="Sp. Atk <= 27.5\ngini = 0.444\nsamples = 3\nvalue = [1, 2]\nclass = Win", fillcolor="#9ccef2"] ;
14 -> 18 ;
19 [label="gini = 0.0\nsamples = 1\nvalue = [1, 0]\nclass = Lost", fillcolor="#e58139"] ;
18 -> 19 ;
20 [label="gini = 0.0\nsamples = 2\nvalue = [0, 2]\nclass = Win", fillcolor="#399de5"] ;
18 -> 20 ;
21 [label="gini = 0.0\nsamples = 2\nvalue = [0, 2]\nclass = Win", fillcolor="#399de5"] ;
13 -> 21 ;
22 [label="gini = 0.0\nsamples = 5\nvalue = [5, 0]\nclass = Lost", fillcolor="#e58139"] ;
12 -> 22 ;
23 [label="Sp. Def <= 97.5\ngini = 0.397\nsamples = 11\nvalue = [3, 8]\nclass = Win", fillcolor="#83c2ef"] ;
11 -> 23 ;
24 [label="Defense <= 59.0\ngini = 0.198\nsamples = 9\nvalue = [1, 8]\nclass = Win", fillcolor="#52a9e8"] ;
23 -> 24 ;
25 [label="gini = 0.0\nsamples = 1\nvalue = [1, 0]\nclass = Lost", fillcolor="#e58139"] ;
24 -> 25 ;
26 [label="gini = 0.0\nsamples = 8\nvalue = [0, 8]\nclass = Win", fillcolor="#399de5"] ;
24 -> 26 ;
27 [label="gini = 0.0\nsamples = 2\nvalue = [2, 0]\nclass = Lost", fillcolor="#e58139"] ;
23 -> 27 ;
28 [label="HP <= 80.5\ngini = 0.295\nsamples = 50\nvalue = [9, 41]\nclass = Win", fillcolor="#64b3eb"] ;
10 -> 28 ;
29 [label="Defense <= 79.0\ngini = 0.404\nsamples = 32\nvalue = [9, 23]\nclass = Win", fillcolor="#86c3ef"] ;
28 -> 29 ;
30 [label="HP <= 67.5\ngini = 0.255\nsamples = 20\nvalue = [3, 17]\nclass = Win", fillcolor="#5caeea"] ;
29 -> 30 ;
31 [label="gini = 0.0\nsamples = 10\nvalue = [0, 10]\nclass = Win", fillcolor="#399de5"] ;
30 -> 31 ;
32 [label="Sp. Def <= 72.5\ngini = 0.42\nsamples = 10\nvalue = [3, 7]\nclass = Win", fillcolor="#8ec7f0"] ;
30 -> 32 ;
33 [label="gini = 0.0\nsamples = 2\nvalue = [2, 0]\nclass = Lost", fillcolor="#e58139"] ;
32 -> 33 ;
34 [label="Attack <= 67.5\ngini = 0.219\nsamples = 8\nvalue = [1, 7]\nclass = Win", fillcolor="#55abe9"] ;
32 -> 34 ;
35 [label="gini = 0.0\nsamples = 1\nvalue = [1, 0]\nclass = Lost", fillcolor="#e58139"] ;
34 -> 35 ;
36 [label="gini = 0.0\nsamples = 7\nvalue = [0, 7]\nclass = Win", fillcolor="#399de5"] ;
34 -> 36 ;
37 [label="Defense <= 90.0\ngini = 0.5\nsamples = 12\nvalue = [6, 6]\nclass = Lost", fillcolor="#ffffff"] ;
29 -> 37 ;
38 [label="gini = 0.0\nsamples = 3\nvalue = [3, 0]\nclass = Lost", fillcolor="#e58139"] ;
37 -> 38 ;
39 [label="HP <= 67.5\ngini = 0.444\nsamples = 9\nvalue = [3, 6]\nclass = Win", fillcolor="#9ccef2"] ;
37 -> 39 ;
40 [label="Defense <= 117.5\ngini = 0.444\nsamples = 3\nvalue = [2, 1]\nclass = Lost", fillcolor="#f2c09c"] ;
39 -> 40 ;
41 [label="gini = 0.0\nsamples = 2\nvalue = [2, 0]\nclass = Lost", fillcolor="#e58139"] ;
40 -> 41 ;
42 [label="gini = 0.0\nsamples = 1\nvalue = [0, 1]\nclass = Win", fillcolor="#399de5"] ;
40 -> 42 ;
43 [label="Sp. Def <= 60.0\ngini = 0.278\nsamples = 6\nvalue = [1, 5]\nclass = Win", fillcolor="#61b1ea"] ;
39 -> 43 ;
44 [label="Defense <= 102.5\ngini = 0.5\nsamples = 2\nvalue = [1, 1]\nclass = Lost", fillcolor="#ffffff"] ;
43 -> 44 ;
45 [label="gini = 0.0\nsamples = 1\nvalue = [0, 1]\nclass = Win", fillcolor="#399de5"] ;
44 -> 45 ;
46 [label="gini = 0.0\nsamples = 1\nvalue = [1, 0]\nclass = Lost", fillcolor="#e58139"] ;
44 -> 46 ;
47 [label="gini = 0.0\nsamples = 4\nvalue = [0, 4]\nclass = Win", fillcolor="#399de5"] ;
43 -> 47 ;
48 [label="gini = 0.0\nsamples = 18\nvalue = [0, 18]\nclass = Win", fillcolor="#399de5"] ;
28 -> 48 ;
}